0.20803 -0.05300 0.02961 0.12316 -0.10005 -0.02722 0.11319 0.10275 -0.02776 -0.06404 -0.02688 0.15807 0.05435 0.07690 -0.11732 0.16980 0.03829 0.05799 0.04215 -0.04453 0.11413 -0.19611 -0.08609 -0.01888 0.06594 0.00818 0.06376 0.04964 0.14713 -0.03527 -0.02188 -0.02227 0.04134 -0.03680 -0.07229 0.04268 -0.01308 0.09483 -0.04066 0.06670 -0.09199 -0.03038 0.03764 -0.22017 0.05128 -0.11636 -0.00888 -0.12866 0.18816 0.01833 0.08300 0.06837 0.02859 0.15795 -0.06402 0.07270 -0.09276 0.03078 0.08563 0.03361 0.03344 0.08023 -0.03405 -0.08029 -0.00060 0.05090 0.15169 -0.10418 0.13213 -0.10101 -0.03014 0.05309 -0.04280 0.01812 -0.10839 0.06103 -0.08440 -0.01835 0.16851 0.00882 -0.10394 -0.01526 0.12894 0.01745 0.00816 0.05839 -0.05474 0.10632 -0.17571 0.22492 0.14231 -0.06971 -0.01036 -0.12117 0.09217 -0.10722 -0.04619 0.13384 0.06010 -0.11754
0.12162 -0.00173 0.05750 0.15031 -0.15375 0.06108 0.06179 -0.00712 0.22325 0.09479 -0.04976 0.02595 -0.10267 -0.22535 0.31389 -0.11909 -0.01644 0.08257 -0.08169 -0.03592 0.18476 0.17595 -0.02719 0.02885 -0.00838 0.07445 -0.01310 0.07776 -0.01093 -0.04936 0.03660 -0.04540 0.00247 -0.07022 0.03312 0.05156 0.01903 -0.03805 -0.07317 -0.12386 -0.01188 0.01600 -0.01667 0.09492 -0.00364 0.00432 -0.00396 0.11564 -0.04432 -0.01987 -0.05155 0.04272 0.07940 0.02319 -0.05334 0.14968 -0.02846 -0.00482 0.03057 -0.18887 -0.21874 0.14200 -0.08396 -0.14732 -0.08875 -0.02752 0.11016 -0.08048 0.03396 -0.05921 -0.04050 -0.15402 -0.01006 0.09335 0.08250 0.19411 -0.18290 0.10312 0.12252 0.11734 -0.13629 -0.01987 0.10550 -0.01491 -0.22176 -0.06474 -0.11870 -0.01093 -0.06787 -0.10034 0.10735 -0.07247 0.07945 -0.13631 -0.07616 -0.11020 0.18267 0.01983 0.05330 0.09461
-0.08170 -0.09241 0.00741 -0.01609 0.06402 0.08668 0.02038 0.01012 0.04813 0.09985 0.05209 -0.11555 -0.01790 -0.23247 -0.00651 0.01639 -0.01405 0.08057 -0.42517 0.02694 0.16190 0.11682 -0.05227 0.13004 0.06126 -0.21877 -0.04650 0.00559 0.02638 -0.03772 -0.17235 -0.00782 0.05711 -0.13540 0.06578 0.07201 -0.01419 0.08461 0.05107 -0.07787 -0.08606 0.24744 -0.00053 -0.04977 0.09801 -0.22512 -0.00838 0.08054 0.03067 0.10316 0.01349 0.02088 -0.06121 0.02382 -0.02703 0.04046 -0.03043 -0.01061 0.09287 -0.09045 -0.01634 0.00569 -0.07436 -0.03901 0.07962 -0.01226 -0.06686 0.03370 -0.06849 -0.06582 -0.01530 0.06637 -0.03341 0.18165 0.00850 0.00733 0.05741 -0.13653 0.20355 0.06905 0.04827 0.03533 0.12137 0.02777 0.02789 0.16500 -0.00260 -0.06450 0.05500 0.23523 0.05210 0.01925 -0.00506 -0.01531 -0.12530 0.01059 -0.00829 -0.07192 -0.02465 -0.04523
-0.14049 -0.15829 0.17612 0.05282 0.05878 -0.03239 -0.09546 -0.12166 -0.00743 0.01698 -0.01492 0.10495 0.09363 -0.07509 0.13868 0.00671 -0.03330 0.16483 -0.07568 0.20656 0.03882 0.07538 -0.13034 -0.15734 -0.04508 0.06741 -0.02724 0.00637 0.09128 0.01433 -0.06362 -0.07372 -0.05230 -0.05295 0.05477 -0.05130 -0.01763 0.03796 -0.01431 0.05953 0.23092 0.02903 0.09430 -0.01640 0.05034 -0.13836 0.02374 0.05522 -0.05147 -0.06304 0.15484 0.09722 -0.02201 -0.13382 0.11071 0.01862 0.00053 0.00133 0.03429 0.11827 0.04697 0.08152 -0.11152 -0.20037 0.07001 -0.05090 0.06368 -0.12339 0.17096 -0.13083 0.10471 0.08760 -0.14081 -0.01596 0.13058 -0.08045 0.19645 0.09043 -0.03887 0.01084 -0.12914 -0.12369 -0.06372 0.05984 -0.12710 -0.04272 0.11660 -0.18887 -0.02881 0.03536 0.03328 0.02354 -0.25008 0.09376 0.03195 -0.11235 -0.04794 -0.11877 -0.13974 -0.09506
-0.17987 0.00352 0.15311 0.08661 0.06540 0.09507 -0.01527 -0.04142 0.04792 0.11883 -0.09926 0.03930 0.07589 0.11725 0.08087 -0.11139 -0.13979 -0.33806 0.09784 0.19373 0.04578 0.04751 0.11508 -0.12687 0.09852 -0.08150 0.00583 -0.05371 -0.16253 0.08980 0.12844 0.06934 -0.07277 0.04849 -0.05802 0.15858 -0.01200 -0.10574 0.04529 0.05352 -0.08393 0.02399 -0.01299 -0.01171 -0.13067 -0.10973 0.01523 -0.04903 0.11149 0.14520 -0.06209 -0.04463 -0.22497 -0.02430 -0.08602 0.08433 -0.03292 -0.06405 0.04855 -0.25455 0.22564 -0.08862 0.09183 -0.02652 0.08959 -0.04684 0.13786 0.09727 0.06793 -0.01493 0.08540 0.23064 0.03089 -0.17268 0.08026 0.00025 0.03598 -0.08119 -0.11182 -0.04809 0.02633 0.05835 0.02289 -0.02591 0.01363 -0.11070 -0.06456 0.03989 -0.01465 -0.25970 -0.09442 -0.10729 -0.04377 -0.02503 -0.07466 -0.01621 -0.08274 0.10848 -0.17157 -0.03342
0.17989 -0.00727 0.13569 0.15152 0.00430 0.02487 0.30649 -0.08171 -0.14727 0.00278 0.02453 -0.04976 -0.04199 0.06124 0.10052 -0.16979 0.01134 0.11285 0.16086 -0.03014 -0.04205 -0.24921 -0.13792 0.08990 0.09232 -0.19758 -0.04184 0.01392 -0.02561 0.08747 0.05617 -0.07538 -0.13511 0.16894 -0.08911 0.08472 0.01958 0.10964 -0.02015 -0.10340 0.04441 0.13445 -0.02491 0.00100 0.10621 -0.07979 -0.08140 0.23273 0.15691 0.02489 0.03089 -0.04045 0.00413 0.01816 -0.17240 0.00419 0.14066 0.08570 -0.04312 -0.01201 -0.10227 -0.06392 0.03996 -0.07290 0.06188 0.04866 0.13078 0.09646 -0.03529 -0.08305 0.16230 0.02555 -0.23261 0.00178 0.00447 0.11437 0.10620 -0.11004 -0.22154 0.13164 -0.08370 0.05308 -0.04961 0.13788 -0.03302 -0.07502 -0.01169 -0.01928 -0.05467 -0.08943 0.27516 0.02121 -0.02882 0.08925 -0.07642 -0.01369 0.03307 0.16892 -0.01215 0.05227
0.13526 0.18281 0.04838 0.06577 -0.15003 0.05828 -0.01261 -0.07763 -0.09349 0.07145 0.04022 0.03150 -0.09297 0.05188 0.03084 0.02317 0.08108 -0.01315 0.05092 0.03577 -0.17090 -0.16154 -0.10158 0.09188 -0.16716 -0.03145 0.20351 -0.06754 -0.18249 0.04357 0.09121 -0.10432 0.02972 0.03760 0.13811 0.01039 0.11455 -0.00637 -0.08746 -0.10681 0.05547 -0.01957 -0.13311 -0.02448 0.01156 -0.01561 -0.12163 -0.01384 0.04166 -0.00446 -0.04847 -0.00478 0.07461 -0.00389 -0.23089 0.02552 -0.03183 -0.18329 0.06483 0.09487 -0.04060 -0.12341 -0.02416 -0.15060 0.05382 0.01495 -0.11810 -0.09714 -0.12468 0.04560 -0.26969 -0.07161 0.02266 0.01851 -0.01662 -0.15801 -0.06032 0.06563 -0.12253 0.01916 -0.11537 -0.04036 0.15057 0.10211 0.04662 -0.06215 0.12360 -0.01828 -0.05816 -0.05777 0.07872 0.12028 0.04249 0.09238 0.03666 0.01553 -0.06402 0.10282 0.06837 0.00159
-0.14368 0.04867 0.14043 0.09893 -0.04684 0.12691 0.16395 -0.02152 0.12381 -0.11849 -0.06979 -0.22216 0.13593 0.10782 0.05939 -0.09197 -0.02673 0.03886 -0.07526 -0.10538 0.11085 -0.11308 0.06887 -0.00453 0.04699 0.12478 0.04138 0.10913 0.03304 0.07383 -0.09814 0.00763 -0.06583 -0.23001 0.03580 0.00951 0.05699 0.13345 -0.11921 -0.00302 -0.05062 0.15379 -0.09447 0.05668 -0.07912 -0.06623 0.16403 -0.09262 0.07464 -0.20027 -0.34599 -0.03438 -0.05162 -0.26754 -0.07153 -0.22591 0.03328 -0.03826 0.11686 0.03796 0.15477 -0.07275 0.18143 0.12052 0.02598 -0.22258 0.13960 -0.06748 0.12019 0.07740 0.01367 0.16201 -0.02729 -0.15756 -0.00559 -0.05244 -0.03650 0.01452 0.03361 0.11624 0.08568 0.15770 0.16010 0.00668 -0.06271 -0.06516 0.03385 0.03057 -0.16947 -0.07734 0.02083 -0.10058 -0.00199 0.11221 0.03872 0.04783 0.01383 0.08215 0.00929 0.09381
0.02778 -0.00209 0.00778 0.07634 -0.05838 -0.02360 -0.01581 0.08128 0.19306 0.08450 0.20940 0.00028 0.09093 0.18180 0.05230 -0.02767 -0.09818 -0.19403 0.02791 -0.01578 0.17049 0.05015 0.05957 0.14630 -0.04111 0.11375 -0.03057 0.01660 0.07673 -0.07128 -0.06000 0.16141 -0.07618 0.10487 0.00697 0.01824 -0.03065 0.01876 -0.10293 0.12487 -0.02968 -0.12419 -0.26994 -0.09292 0.01052 0.11320 0.10792 0.02950 0.03366 -0.02945 0.02344 0.08325 0.00394 -0.05616 0.05505 -0.06510 -0.03062 -0.02133 0.03455 -0.07329 -0.22704 -0.07958 -0.00686 -0.05049 0.14549 -0.11629 0.13850 0.00996 0.12683 0.11756 0.14578 0.11242 0.18906 0.07731 0.00633 -0.09212 -0.24146 0.13215 -0.17139 -0.14445 0.14221 0.03193 0.09408 0.05791 0.00223 0.06303 0.20386 0.00367 0.04547 -0.02142 -0.04421 -0.10059 0.12231 0.02874 -0.04640 0.06718 0.00175 0.02602 -0.02535 0.01415
-0.04307 0.10669 0.12005 0.08510 0.05923 -0.05929 -0.07427 0.05785 -0.01475 -0.08924 -0.11700 0.01503 -0.07644 -0.06819 -0.08396 0.11107 0.00103 -0.02852 -0.06526 0.28610 0.04447 0.08760 0.13859 0.02317 -0.19913 0.18844 0.07038 0.13788 0.01678 0.03765 0.15005 -0.06115 -0.16123 0.06299 -0.07902 -0.00920 -0.02740 -0.11523 0.03624 0.04896 0.12938 -0.03482 0.00178 -0.08627 0.04336 -0.04500 -0.12775 -0.00680 0.04798 -0.09965 0.15168 0.05725 0.17653 0.00148 0.01302 -0.08063 -0.01631 -0.02044 0.14261 0.10915 0.05228 -0.11486 0.06137 0.06096 0.05204 -0.06797 -0.10701 -0.11190 -0.03244 -0.06670 0.03875 0.06657 -0.14952 0.09389 -0.03242 0.16431 0.02677 0.09716 -0.10602 0.00457 -0.09708 -0.03206 -0.11566 -0.04692 -0.09337 0.06460 0.07584 0.10551 0.00685 0.04100 -0.00361 -0.01755 -0.02693 -0.03202 0.01072 -0.03564 0.16494 -0.20098 -0.02378 -0.08346
-0.07489 0.05840 -0.07418 -0.16435 0.18472 -0.10481 0.15773 -0.08349 0.20774 0.04607 0.06385 0.02739 0.03292 0.02310 -0.06646 -0.08659 0.16277 0.15304 0.01781 0.08117 -0.11806 0.01837 -0.01469 0.06417 -0.05128 0.02734 0.00048 -0.00269 -0.05284 0.04767 -0.06576 -0.05109 0.13408 -0.09676 0.04153 -0.14185 -0.13913 -0.16086 -0.03802 -0.07019 -0.01009 -0.01086 0.15608 -0.02532 -0.04672 -0.05517 -0.26634 0.08924 0.03105 -0.08330 -0.06586 0.03156 0.02832 0.01363 0.03347 0.10166 0.13592 -0.10681 0.11987 0.08785 -0.06486 -0.03423 0.08891 0.02097 -0.04995 -0.12980 -0.16570 0.05633 -0.15400 0.00699 -0.12975 -0.00850 0.17565 -0.03114 -0.13208 0.04259 -0.05918 -0.05990 -0.00217 0.10366 0.02725 -0.06122 -0.05443 0.13505 0.05072 0.16922 -0.04772 -0.06754 -0.00799 -0.23931 -0.05155 0.11717 0.08662 0.01526 -0.07649 0.00390 -0.12039 -0.02966 0.11186 -0.12474
-0.15961 0.01539 0.01931 -0.01311 0.03161 0.05333 -0.03589 -0.00503 -0.00703 -0.11992 0.13082 -0.11873 0.03749 -0.05776 0.11008 -0.05592 -0.28490 0.09962 0.12650 0.00584 -0.13010 0.17221 -0.06832 -0.10859 0.03041 0.01878 -0.14916 -0.01366 -0.00341 0.06771 -0.11003 -0.00820 0.05071 -0.13612 0.10491 -0.08338 -0.12554 -0.24588 -0.02724 -0.09392 -0.00272 0.05560 -0.00397 0.10382 -0.01931 0.02470 0.07168 0.12965 -0.02266 0.09657 0.06357 -0.14529 0.11499 -0.06832 -0.07318 0.12001 -0.00377 -0.05380 -0.05149 -0.06978 0.07170 0.09009 0.00240 0.27512 0.02002 -0.01841 0.11129 0.03876 -0.24239 -0.09769 -0.00677 -0.18024 0.06605 -0.00755 0.12592 -0.09846 -0.12488 -0.04247 -0.04856 0.07475 -0.11899 0.02545 -0.24603 0.04814 -0.10061 0.13068 0.02415 -0.06410 0.00414 -0.05684 -0.02648 -0.19412 0.02892 -0.08744 0.01194 -0.04147 0.02082 0.06990 0.03317 0.08555
-0.11019 -0.04049 -0.10245 0.08089 0.16796 0.07212 -0.02506 -0.05452 0.05194 0.13439 -0.11255 -0.15008 -0.09981 -0.04385 0.02820 -0.17333 0.08456 0.05456 0.00964 -0.06865 -0.08424 0.09421 0.18014 -0.07009 0.08999 -0.11232 -0.16729 0.02520 0.09584 0.00444 0.01238 -0.09739 0.09505 -0.12925 0.09732 0.00531 0.03854 -0.14500 -0.16369 0.15927 -0.04012 0.23893 -0.02912 -0.03784 -0.11465 -0.16956 0.01742 -0.06066 -0.13090 0.07813 -0.17076 -0.17089 0.02515 -0.06440 0.09735 0.17640 0.05923 0.03387 0.04873 0.07018 -0.07290 -0.11066 0.07092 -0.10403 0.07303 0.14703 0.01680 0.04960 0.06316 0.11322 0.04119 -0.01467 0.22019 0.04909 -0.05129 0.06960 0.00087 0.09432 -0.14473 -0.00971 0.16906 -0.08885 0.03562 -0.03054 0.02522 -0.08515 -0.00477 0.03573 -0.11911 -0.17396 0.05808 0.07755 0.02092 0.02582 -0.16622 0.18062 0.41052 -0.06755 0.06618 -0.09916
0.01083 -0.14330 0.00190 0.04641 -0.08937 0.16841 -0.01735 -0.17404 -0.02103 0.20126 0.09826 0.02892 -0.19971 0.15678 -0.12458 -0.03730 -0.06600 0.03238 -0.00381 0.02265 0.05411 -0.09696 0.14329 0.03274 0.12530 0.11544 0.02406 0.03187 -0.03600 0.03787 0.12776 -0.05987 -0.07681 0.01197 -0.00231 0.23895 0.08263 0.00060 0.08362 0.01413 -0.02394 0.10276 -0.01998 0.08639 0.09834 0.13202 0.07777 0.23275 0.11762 0.21165 0.05577 0.00491 0.07105 -0.02849 0.19025 0.06013 0.02916 -0.18435 -0.06963 0.07487 -0.03360 -0.09959 0.00222 -0.18988 -0.04030 -0.05296 -0.08220 0.00216 0.08524 0.11623 0.09868 0.06403 0.01192 0.10789 -0.17895 0.17305 -0.16361 -0.02732 -0.12050 -0.03243 0.05529 0.10676 -0.12353 -0.01147 0.14588 -0.06207 0.08240 0.26141 -0.02583 0.00616 -0.07385 -0.09470 -0.10368 0.06905 0.01253 -0.03384 -0.09587 0.14504 0.00655 0.03748
-0.06932 -0.06118 -0.33255 -0.06627 0.11450 -0.13643 0.08338 0.02333 -0.09168 -0.04248 0.05148 0.03832 0.05805 0.16971 0.02671 0.04179 -0.00365 0.09802 0.07532 0.02267 -0.07589 0.06228 -0.00833 0.08964 -0.17689 -0.08397 0.02636 0.11572 -0.08447 0.14797 0.01874 0.06311 -0.20169 0.17314 0.15136 0.02980 -0.09074 -0.07599 0.04217 -0.08093 0.13728 -0.03262 0.00904 -0.13165 -0.09633 0.07522 0.06259 0.07687 -0.11811 -0.03898 -0.10913 0.02631 -0.07207 -0.07895 0.01686 0.04540 -0.14105 0.00400 0.07610 0.09453 -0.06963 0.05777 -0.02678 -0.18671 0.09174 -0.05106 -0.09370 -0.09285 0.12490 -0.06298 0.04121 0.07449 -0.03477 -0.02153 -0.11955 0.00648 0.11864 0.01374 -0.03014 -0.17547 0.03741 -0.09294 0.14024 0.09940 0.04927 0.20746 0.16892 0.02359 -0.15008 0.15297 0.08444 0.13362 0.00821 -0.09844 0.02925 -0.01720 0.09840 -0.04982 -0.02524 -0.10543
0.03169 0.11141 -0.02115 0.10114 -0.10373 0.14268 0.11484 0.03324 0.06768 -0.18848 0.20080 0.00760 0.05837 0.06564 0.14113 0.03169 -0.07695 0.06132 -0.10894 -0.04148 0.06696 0.08821 0.02665 -0.08055 0.02056 -0.00018 -0.02276 0.07695 -0.15919 -0.04546 0.07723 0.01710 -0.06246 -0.11239 0.17726 -0.03681 -0.01887 0.03977 -0.05285 -0.04337 0.02465 -0.05047 0.15737 -0.05455 -0.04838 -0.07878 -0.04226 -0.00612 0.03141 0.08035 0.14152 0.15733 0.00321 -0.08180 -0.00519 0.10573 0.02278 -0.03248 -0.13383 -0.05790 -0.04690 -0.06077 0.17620 -0.05365 0.09759 -0.17053 0.01457 0.01031 -0.15927 0.12499 -0.04839 0.03816 0.10204 0.11640 -0.21765 0.13822 -0.05554 0.06465 -0.05902 0.06876 -0.03691 -0.05748 -0.04258 -0.06339 -0.10247 -0.08082 -0.00577 0.16300 -0.06221 -0.07329 0.14925 -0.14718 0.06728 0.21467 -0.15572 -0.09105 -0.12554 0.03917 0.18083 0.03795
-0.05155 0.14831 -0.02712 -0.06893 0.18086 -0.00280 0.05472 -0.18810 0.04076 0.02376 0.04474 -0.02957 0.11516 0.07988 0.11545 0.14957 -0.13926 -0.28634 -0.00438 -0.14326 -0.06591 -0.07088 -0.01425 0.09102 -0.07832 0.03032 -0.01988 0.07757 0.07008 -0.02993 -0.13529 -0.04242 -0.07289 -0.00361 -0.04190 0.08179 -0.00527 -0.00974 -0.03554 0.28377 0.10406 0.11878 -0.08216 -0.06924 0.07216 0.00657 -0.03282 0.01980 0.07886 0.02122 0.01746 -0.01724 -0.01042 -0.00166 -0.07982 -0.04849 0.08274 -0.06947 0.19555 0.04885 -0.01140 -0.03727 0.02652 0.02347 -0.00720 0.01930 0.15112 0.05144 0.13682 0.23335 -0.07176 -0.08998 -0.09625 0.00941 -0.00855 -0.02839 0.08325 0.09064 0.03612 0.20879 0.01124 -0.05469 0.08042 -0.12916 0.00873 0.04249 0.07810 -0.05060 -0.18125 -0.09091 -0.13548 0.08497 -0.15478 0.03954 0.01817 0.01893 0.02150 -0.04486 0.16992 -0.00770
0.10896 0.04386 -0.06815 -0.09379 -0.02491 0.07301 -0.02206 0.05992 -0.11799 0.04889 0.02883 -0.04745 -0.12812 -0.12570 -0.06752 0.03599 -0.05073 -0.02018 -0.04811 0.01886 0.22361 0.05479 0.09584 -0.11178 0.05048 0.10767 -0.11447 -0.01410 0.06180 -0.14413 0.11910 -0.20288 0.17939 0.06475 0.18814 -0.00444 -0.01798 0.11854 -0.10732 0.00955 -0.01607 0.08956 0.08732 -0.01422 0.05590 -0.00589 0.17128 0.05517 -0.05320 -0.07488 -0.00632 0.01516 0.06750 0.03476 0.08673 0.02621 -0.10547 0.09145 0.03584 0.07594 0.01787 -0.03696 -0.12115 0.03781 -0.10940 -0.05407 -0.13604 -0.23389 0.29600 0.17248 -0.02660 -0.06435 -0.08285 0.19120 -0.08096 0.07140 0.14414 0.00029 0.05418 0.02096 -0.11090 0.06492 0.09294 -0.10727 -0.04254 -0.00501 -0.12071 0.14192 -0.11283 0.00644 0.08590 -0.19735 -0.04018 0.01070 0.09545 -0.03624 -0.15965 0.06331 0.05871 -0.02548
-0.10729 0.09216 0.05203 -0.05902 0.19960 -0.09472 0.00717 -0.01761 -0.03565 0.03454 0.14836 0.10334 0.06649 0.06547 0.13418 0.24243 -0.04225 -0.11829 0.17475 0.11315 0.07620 -0.04603 0.08463 -0.13378 0.05285 0.05491 0.03857 -0.01324 0.06024 0.10540 0.06368 -0.13265 0.05143 0.06038 0.00548 0.02868 0.24845 0.07104 -0.06335 0.07651 0.11230 0.02837 0.21554 -0.11705 -0.02379 0.10836 -0.01448 0.00281 -0.14489 -0.09167 -0.00949 0.09895 0.10155 0.02012 0.03321 -0.00533 -0.05087 -0.04993 -0.09842 -0.07718 0.01524 0.03715 0.17369 -0.04812 -0.06692 0.10170 0.15832 0.03173 -0.02747 0.15955 -0.13010 0.12186 -0.27077 -0.04959 -0.04743 0.16652 0.07135 0.05129 -0.18525 -0.03127 -0.00030 -0.05358 0.23376 -0.14043 -0.09727 -0.01641 -0.12524 0.01883 -0.00375 0.07844 -0.05726 0.13632 0.27714 0.00187 -0.01519 -0.36843 -0.08197 -0.00791 0.08322 -0.00014
0.15062 -0.05167 0.05963 0.13138 -0.01914 -0.09621 0.07577 0.12594 -0.04453 -0.01159 0.02779 0.13214 0.05659 0.03955 0.07308 -0.00252 0.02282 0.20382 -0.11263 -0.08302 0.09541 -0.13834 -0.00487 -0.00238 0.09113 -0.04654 -0.08759 0.13489 -0.18712 -0.04202 0.24051 -0.05165 0.00425 -0.17879 -0.01810 -0.02734 -0.08477 0.04078 0.07666 -0.00465 0.03240 -0.06843 -0.10252 0.15547 -0.12061 0.03016 0.06741 -0.07251 -0.10772 -0.07855 -0.01790 -0.05835 0.08280 0.01920 -0.15599 0.02693 -0.01070 -0.26013 -0.14509 -0.01874 0.06896 0.00234 0.17119 0.04272 0.15704 0.03955 -0.11596 0.07853 -0.19258 0.08170 0.05299 0.11676 0.00585 0.04643 0.07504 0.07927 0.19081 -0.11388 0.23228 -0.10427 0.11792 0.00547 0.00706 -0.10328 -0.08100 0.10698 0.00927 -0.07554 0.16169 -0.02223 0.01629 0.04221 -0.07513 0.14627 0.00184 -0.06855 -0.02556 0.00680 0.03220 -0.06764
